%YAML:1.0
my_svm: !!opencv-ml-svm
   svm_type: C_SVC
   kernel: { type:LINEAR }
   C: 2.6699999999999999e+00
   term_criteria: { epsilon:1.1920928955078125e-07, iterations:1000 }
   var_all: 1024
   var_count: 1024
   class_count: 2
   class_labels: !!opencv-matrix
      rows: 1
      cols: 2
      dt: i
      data: [ -1, 1 ]
   sv_total: 1
   support_vectors:
      - [ 2.01722269e-05, 1.02870345e-05, 7.27236693e-06,
          -5.09376468e-06, -2.52637687e-06, 3.98216173e-07,
          -6.32098761e-07, 5.17335047e-06, -1.48743072e-06,
          6.69033261e-06, 2.61606601e-06, 8.92352637e-06, 8.88532031e-06,
          -9.65415711e-06, 9.88739066e-06, 7.75202750e-07,
          9.95340179e-06, -2.88097749e-06, -2.30317301e-06,
          2.38524444e-06, 2.83601639e-06, 1.44535295e-06,
          -3.72109639e-06, 9.07565209e-06, 1.42852855e-06,
          6.91383002e-06, 8.81497272e-06, 4.97703195e-06,
          -2.76358605e-06, 6.22022117e-06, 5.33373395e-06,
          3.90219247e-06, -9.09408186e-07, 8.15293970e-06,
          -3.81044015e-06, -8.24383915e-06, 6.07041875e-06,
          -4.19405387e-06, 2.84199086e-06, -9.42527367e-06,
          -7.94760490e-06, -1.46364373e-05, -1.08342911e-05,
          -7.45621765e-06, -1.37711613e-05, -1.07067708e-05,
          -1.16813635e-05, -7.52572123e-06, -1.10012952e-05,
          -3.76482558e-06, -4.21244522e-06, -2.46157788e-06,
          -6.06105641e-06, 3.20980371e-06, -8.14105442e-06,
          -4.26917632e-06, -1.12420930e-05, -2.11393331e-06,
          4.90106402e-07, -9.45239026e-06, -8.62660818e-06,
          1.47028493e-06, 5.69768918e-06, -6.65051948e-06,
          1.31335637e-05, 1.51014774e-05, 2.08967163e-06, 8.34047751e-06,
          9.47388980e-06, 3.57351109e-06, 2.81189273e-06, 8.45078102e-06,
          3.60147465e-06, -4.22663879e-06, -1.07144933e-05,
          1.22786912e-06, -5.27879911e-06, -1.24262453e-06,
          1.11520546e-06, -6.26642850e-06, -1.26517771e-05,
          -4.57174610e-06, -3.07490865e-07, 1.49951370e-06,
          -6.99282236e-06, -3.94581912e-06, -1.45253871e-05,
          -3.11060626e-06, -9.63157345e-06, -5.77021319e-06,
          -5.48759226e-06, -5.23765493e-06, -8.77844923e-06,
          -7.82209463e-06, -9.25317727e-06, -1.10794042e-06,
          -3.16724027e-07, -3.64681273e-06, -6.55232589e-06,
          -1.02251606e-05, -5.04843865e-06, -9.73838360e-06,
          -6.94679738e-06, -2.50461835e-06, -1.17724517e-06,
          -2.86893669e-06, -1.50798644e-06, -6.66383949e-06,
          -2.40703616e-06, -2.05044557e-06, 9.36120500e-07,
          -1.35279797e-05, -5.38449467e-06, -1.23986265e-05,
          1.64285063e-06, -5.50780805e-06, 1.13077685e-05,
          -7.09656433e-07, -3.60973957e-07, 6.46522085e-06,
          8.17406362e-06, 1.73616922e-06, 9.54666211e-06,
          -4.28498743e-06, -1.31951783e-05, -3.49063498e-06,
          -2.42329452e-06, -4.64295817e-06, -8.15385283e-06,
          -1.73207513e-06, 7.60751300e-06, -3.55265024e-06,
          -5.77500714e-06, 1.83391546e-06, -1.14946406e-05,
          -2.34562458e-06, 4.47741695e-06, -9.46004729e-06,
          -1.68131862e-06, -3.91043841e-06, -1.64206506e-06,
          -1.10832088e-05, -8.70401527e-06, 5.27022485e-06,
          -1.92196740e-06, -3.53623250e-06, 6.48418745e-06,
          -1.43959387e-05, -4.68681765e-06, -5.64997208e-06,
          -6.16873422e-07, -8.32979549e-06, -2.62865257e-07,
          2.90554726e-06, 8.11408336e-06, 2.97983024e-06,
          -2.77996946e-06, 7.72978819e-06, 3.58530724e-06,
          8.97470090e-06, 2.11467591e-06, 4.93740799e-06, 8.38415963e-06,
          7.95870801e-06, -4.29154397e-07, -6.31982584e-06,
          4.85761802e-07, 1.05607287e-05, -3.43175316e-06,
          -5.51467883e-06, 1.92056450e-06, -9.12906125e-06,
          -1.13928245e-05, -1.91923482e-06, 2.41237626e-06,
          -3.97410759e-06, -4.46493868e-06, -6.05357491e-06,
          -2.11534848e-06, -5.05429739e-07, 3.27318457e-06,
          -1.42297313e-06, 8.98935104e-06, 5.21552829e-06,
          6.59738134e-06, 1.08335007e-05, -3.80526740e-06,
          5.43422038e-06, 5.42880707e-06, 1.37645420e-05, 3.65337246e-06,
          -4.35336597e-06, -3.61360776e-06, -1.13450606e-05,
          1.37398056e-05, 1.88446429e-05, 1.76956873e-05, 1.19833985e-05,
          1.63289787e-05, 1.11508307e-05, 9.46218915e-06, 1.08526174e-05,
          4.00768658e-06, 6.09562358e-06, 1.34169215e-06,
          -1.24955056e-06, 9.53697145e-06, -2.43312707e-06,
          -4.93623838e-06, -2.21905998e-06, -7.43119426e-06,
          1.67557175e-06, 1.13180579e-06, -4.84550537e-06,
          -2.91815718e-06, 6.09431390e-06, -5.63013600e-06,
          1.76561443e-07, -5.95008805e-06, 2.92629420e-06,
          -4.43430599e-06, -8.31951456e-06, -5.04210584e-06,
          -2.15167665e-06, 1.68344116e-06, 9.65207391e-07,
          -6.12450685e-06, 2.87743524e-06, 3.50053369e-06,
          -7.94296056e-07, -8.55509370e-06, -9.52401751e-06,
          -1.68948718e-05, -5.12623683e-06, -1.32990272e-05,
          -3.16718001e-06, -7.88904617e-06, 2.65842618e-06,
          -1.38082805e-05, -1.95861794e-05, -1.32483528e-05,
          -1.13211881e-05, -1.15228813e-05, -1.31980892e-06,
          -9.18077149e-06, -1.90332031e-07, -1.53659039e-06,
          -6.38293841e-06, -1.62367746e-06, -1.61768276e-06,
          -8.03899547e-06, -3.61376101e-06, -3.91564527e-06,
          -1.70641742e-05, -4.47955699e-06, -6.04195566e-06,
          3.09429524e-05, 1.01789174e-05, 3.34796641e-06, 1.41377031e-05,
          7.10989934e-06, 3.01490036e-06, 2.35446623e-06, 5.76636785e-06,
          -3.08043786e-06, 1.20487891e-06, -1.32401397e-06,
          6.00146996e-06, -5.22168784e-06, -1.31862462e-05,
          -1.82394319e-06, 2.68075814e-06, -1.58777459e-06,
          1.33771091e-05, 1.59285373e-05, 8.83043504e-06, 1.34357251e-05,
          6.73380691e-06, -1.42166055e-05, 1.39811373e-05,
          4.12447253e-06, 2.03358923e-06, -7.23681921e-07,
          2.24800530e-07, 2.79097412e-06, 6.84860606e-06, 1.13396763e-05,
          1.10455494e-05, 9.41837607e-06, 5.32288004e-06, 4.20860715e-07,
          4.83435997e-06, 1.85642275e-05, 1.58068615e-05,
          -1.55836074e-06, 1.22872880e-05, -5.02827834e-06,
          2.14898796e-06, 4.21414256e-07, 1.38932944e-06, 2.37388713e-06,
          -2.88199180e-06, 1.84363944e-06, -1.79745882e-07,
          -2.33381866e-06, -5.93556524e-06, 2.19871012e-07,
          8.69050746e-06, -2.28702652e-06, -4.47736511e-06,
          1.02733984e-05, -4.73054524e-06, -7.74310229e-06,
          1.20015704e-06, -5.73675561e-06, -1.22080892e-05,
          -2.07101311e-05, 2.16140234e-06, -1.10360952e-05,
          -1.77438687e-05, -7.06599303e-06, -2.57900174e-05,
          -1.20652849e-05, -1.94260392e-05, -2.05788292e-05,
          -1.61943663e-05, 3.61417551e-06, -6.37888570e-06,
          6.94298114e-06, 1.54177651e-05, 2.04535331e-06, 1.92171356e-05,
          4.31070794e-06, 1.51638042e-05, 1.28863612e-05, 1.46983948e-05,
          1.68038750e-05, 1.47324254e-05, 1.19356700e-05,
          -1.73845751e-06, 1.18424600e-06, 6.08356368e-06,
          3.80001052e-06, 1.56828501e-05, 1.70040721e-06,
          -5.79196694e-06, -2.91595825e-06, -2.46780314e-06,
          -3.93948585e-06, -3.24763232e-06, 5.50978802e-06,
          3.99488272e-06, 8.32892874e-06, -4.95211452e-07,
          5.53603115e-07, -1.10141646e-05, 1.45252816e-05,
          -1.01065939e-06, 8.78050923e-06, 8.57822579e-06,
          1.23260097e-05, -1.31127581e-06, 1.00246134e-05,
          5.04418676e-06, -3.40310066e-07, 9.39452912e-06,
          1.74722918e-05, 1.36443332e-05, 1.89750870e-06,
          -4.60445381e-06, -6.52960398e-06, -2.02110587e-05,
          -8.06004846e-06, -6.76686966e-07, 1.89131197e-06,
          -5.54434519e-06, -5.91558864e-06, -1.31437146e-05,
          -4.53727171e-06, -1.92095431e-05, 3.75664649e-06,
          1.36696440e-06, 3.19484366e-06, 1.56977203e-05, 2.11081151e-05,
          8.35097126e-07, 6.65867628e-06, 5.20971071e-06,
          -4.48240098e-06, 1.30584021e-05, 1.72773548e-06,
          2.31628042e-06, 7.99222926e-06, 9.61157752e-07,
          -6.31280409e-06, 1.40267673e-06, -9.91378602e-06,
          -2.00167906e-05, 1.88124295e-06, -1.29573000e-05,
          3.75524587e-06, 2.85887472e-06, 8.72055443e-06, 4.65818130e-06,
          6.10889765e-06, 4.61538593e-06, 2.63158199e-07, 1.05699801e-05,
          -5.80081269e-06, -8.86658017e-06, -1.43448426e-06,
          1.05902263e-05, 7.99109876e-06, -1.44198691e-06,
          4.40290052e-07, -4.99000748e-07, 4.00156523e-06,
          -2.07674316e-06, -1.45841989e-06, -3.15557918e-06,
          5.39118173e-06, -3.76822322e-06, 4.17698311e-06,
          2.90518460e-06, -1.60029558e-05, 2.58831165e-06,
          -5.81607628e-06, 9.87055864e-06, -6.00678095e-06,
          -1.00670240e-06, 8.78673018e-06, -5.61034449e-06,
          -5.72021418e-06, -7.26638700e-06, 4.07437665e-06,
          -1.78159226e-07, -4.99471071e-06, -5.95527536e-06,
          4.51180426e-07, -1.60874788e-06, 2.09733503e-06,
          -1.12837552e-05, 8.69403038e-08, 5.48977778e-06,
          5.32962667e-06, 1.89949369e-05, 1.60048567e-05, 2.20300080e-06,
          3.31043375e-05, 6.68066696e-06, -3.48590493e-06,
          -1.19228616e-06, -3.22680421e-06, -3.01111777e-06,
          4.29538204e-06, -1.31824706e-07, 5.63430513e-06,
          1.34405138e-06, 8.18800436e-06, -1.45424474e-05,
          2.47057119e-06, 1.21638777e-05, 7.90827562e-06, 6.17877140e-06,
          -6.32998479e-07, 7.19115505e-08, 1.29116479e-05,
          2.91450192e-06, 5.83001849e-07, -6.66402775e-06,
          -2.13327326e-06, 2.12531745e-06, -2.38682765e-06,
          7.20550361e-06, -1.37949337e-05, -4.24420080e-07,
          -9.83161044e-06, -1.08849736e-05, -1.92705866e-05,
          1.81097676e-06, 1.18382750e-05, -3.37544748e-06,
          4.41594466e-06, -5.51975108e-06, 6.03593116e-06,
          1.42792624e-05, -1.86438035e-06, -7.29806743e-07,
          3.77592892e-06, 8.57918076e-06, 1.98766855e-07, 1.42725321e-05,
          9.36935521e-06, 5.56940131e-06, 2.93170797e-06,
          -4.94389042e-07, 1.22619340e-05, -1.46984235e-06,
          9.95033588e-07, -6.11135363e-07, -8.60055195e-07,
          7.82062125e-06, 9.68954828e-06, -6.35395554e-06,
          -4.79921300e-06, 3.45282183e-06, -1.69896498e-06,
          -6.99896782e-06, -1.01782180e-05, 1.02614003e-05,
          5.73974785e-06, 2.05609249e-05, -5.35024810e-06,
          -2.16834496e-06, 8.52034930e-07, -3.65816732e-06,
          -8.91746186e-06, -6.05612922e-06, -3.68363385e-06,
          -4.92339814e-06, -6.18403874e-06, -1.72689386e-06,
          -5.36117614e-06, -5.28780629e-06, -4.11659812e-06,
          5.88708076e-07, -1.77501704e-06, -1.71661964e-06,
          -1.91407935e-06, 9.60340799e-07, 1.51674726e-06,
          2.32566390e-06, -1.90440005e-07, 2.65849485e-06,
          -2.26676480e-06, 4.03623017e-06, -1.15476951e-06,
          3.95355710e-06, 7.05375987e-06, 2.69594267e-07,
          -1.17855257e-06, 5.57149815e-06, -2.83628674e-06,
          7.31445255e-07, -4.52449922e-06, -1.39589713e-06,
          -1.95714347e-06, -1.33307779e-07, -1.17534109e-05,
          -2.72237435e-06, -1.34277445e-06, -5.87887189e-06,
          -1.25570307e-06, -6.22643392e-06, -4.67974587e-06,
          -1.36636618e-06, 1.01809076e-06, 5.09372512e-07,
          1.50275844e-06, -7.02975228e-07, -4.48131141e-06,
          -9.63450384e-06, -5.70233715e-06, -7.81080507e-06,
          -4.48993524e-06, -8.73940280e-06, -1.75379910e-06,
          -3.80800634e-06, -1.72298098e-06, -4.12296095e-06,
          -3.12587986e-07, -1.60673198e-06, 2.24494147e-06,
          -1.14561144e-05, -5.32226977e-06, -1.47430899e-06,
          -2.13916181e-07, 7.99582210e-07, -5.93426512e-06,
          -1.37493771e-06, -5.60081571e-06, 4.95094014e-07,
          -4.68630844e-07, 1.11750649e-06, -4.38578945e-06,
          -2.11713018e-06, 8.47449542e-07, -1.17834691e-06,
          -2.05750075e-06, -2.13554017e-06, 1.13076271e-06,
          2.59330659e-06, 3.33514708e-06, 9.31410057e-07, 4.66803584e-07,
          3.59830153e-07, -1.70667505e-07, 2.35524499e-06,
          7.58304259e-06, 3.92799257e-06, -2.42398255e-06,
          -8.77865716e-07, 2.14252722e-08, -5.98787301e-06,
          -3.96937457e-06, -3.24433177e-06, 6.37350013e-08,
          -2.22534641e-06, 2.93800076e-06, -1.24268365e-06,
          -2.88533306e-06, -1.78402365e-06, 1.69885664e-06,
          2.39941710e-06, 4.35872107e-06, 7.81651943e-06, 2.99699377e-06,
          8.75935802e-06, 8.18817625e-06, 5.40553401e-06, 3.88095759e-06,
          7.26753910e-07, 6.88324917e-06, 1.77830134e-06, 6.11543010e-06,
          2.82224437e-06, 5.80027017e-06, 6.27708368e-06, 3.61234515e-06,
          2.01936632e-06, 7.74159435e-06, 7.94053813e-06,
          -3.37130336e-06, -3.05808976e-06, -6.43097519e-06,
          6.76530249e-07, 3.32040401e-07, 2.21603315e-07, 3.89161733e-06,
          -3.35107666e-06, 6.54418045e-07, 1.76379251e-06,
          -3.05015783e-06, -3.82119242e-06, -8.99476254e-06,
          -7.31425689e-06, -5.67637699e-06, -6.04584511e-06,
          -3.25725318e-06, -6.49949743e-06, -6.35083052e-06,
          -5.79565130e-06, -5.42471753e-06, -2.12390933e-06,
          -4.89031027e-06, -4.11711017e-06, -7.76928391e-06,
          -9.41106828e-06, -6.47814522e-06, -1.06573873e-06,
          -5.25244968e-06, -1.95339203e-06, -4.17370393e-06,
          7.02415946e-07, -3.31449684e-07, -7.24868778e-06,
          -2.09288260e-06, -2.56768976e-06, -1.09320240e-06,
          2.21021310e-06, 2.10186067e-06, -5.43779834e-07,
          -3.95976849e-06, -3.77421361e-06, -1.85783233e-06,
          -8.05167076e-07, -1.11929921e-06, 3.28038482e-06,
          -1.80784423e-06, 2.26576731e-06, 7.46555042e-06,
          8.12346661e-06, 2.10138228e-06, 2.18887976e-06,
          -6.06702372e-07, -5.87721024e-06, -4.36463688e-06,
          1.16937588e-06, -9.27070232e-06, -2.16107696e-06,
          -4.57770921e-06, -6.89828721e-06, -6.09059407e-06,
          -5.57964358e-06, -8.12353937e-06, -4.38432926e-06,
          -1.70986857e-06, 2.10665780e-06, 4.53165342e-07,
          -1.42373904e-06, 1.31214904e-06, 2.88886508e-06,
          -3.78807022e-06, 7.51832772e-07, -8.15605927e-06,
          -4.46390914e-06, -3.91468666e-06, -1.00746502e-05,
          -1.71620025e-06, -3.88569833e-06, 1.03773129e-06,
          -4.40490521e-06, -4.04957382e-06, -5.33607908e-06,
          -2.02592651e-06, -7.55909696e-06, -3.27675752e-06,
          7.80387168e-08, -2.64014307e-06, -6.86354653e-08,
          -9.20940238e-07, -7.47023068e-06, -2.65969675e-06,
          -3.36855510e-06, -1.20228412e-06, -6.20391484e-06,
          -3.71137730e-06, -4.93949756e-06, -5.36740527e-06,
          -3.09527718e-06, -9.63045659e-06, 1.36763276e-06,
          4.83979989e-07, -1.60537036e-06, 3.90422628e-07,
          -2.54022552e-06, 6.24467111e-06, -1.55671125e-06,
          4.82179667e-06, 5.08121593e-06, 6.77434355e-06, 1.13589635e-06,
          1.62956576e-06, 2.80331687e-06, 3.61647608e-06, 6.32705087e-06,
          1.52202551e-06, 5.21228685e-06, 2.85609940e-06,
          -3.62542778e-07, 4.24572909e-06, 5.58772126e-06,
          2.89172294e-06, 1.01083942e-05, 6.93155789e-06, 8.37631524e-06,
          1.07525366e-05, 5.71548435e-06, 2.82624728e-06, 1.33234025e-05,
          7.59413115e-06, 1.47207129e-06, 1.21345238e-06,
          -1.52078974e-06, -7.99140082e-07, -4.58815430e-06,
          -3.93415530e-06, -7.54113671e-06, 3.04921798e-07,
          7.67134622e-07, -9.45942975e-06, -2.39601127e-06,
          6.96584038e-06, -4.04732447e-07, 4.66376605e-06,
          1.06024663e-06, 4.33444438e-06, 8.42544068e-06, 1.10042110e-05,
          -3.34409674e-06, 5.19591913e-06, -4.31736817e-06,
          -5.31614933e-06, 4.64198411e-06, -3.40673591e-06,
          -8.32255864e-07, -3.46598677e-06, 2.61916966e-06,
          -6.35969263e-06, 2.31254012e-06, -2.71370732e-06,
          3.42230510e-06, 8.09873836e-06, -5.04590707e-06,
          -5.79258710e-07, -2.77814337e-07, 1.95571533e-06,
          -6.62560467e-07, -1.83374493e-06, -5.17155604e-06,
          3.72214913e-06, 8.66308085e-07, -5.31301112e-07,
          -3.49122229e-06, -4.85959163e-06, -1.71689908e-06,
          -5.35820072e-06, 2.70241367e-06, -6.40728240e-06,
          -6.67229688e-06, 1.01131138e-06, -2.56805697e-06,
          -1.41941064e-06, 9.33306637e-06, -1.30326896e-06,
          -9.21137780e-06, 3.39710004e-06, -4.05811534e-06,
          -2.42675378e-06, -3.31320598e-06, -2.50900007e-06,
          -1.21855928e-05, -4.93898369e-06, -6.35142987e-06,
          -4.05175388e-06, 3.74746082e-06, -7.78523997e-07,
          -1.10553274e-05, -2.45622073e-06, -2.82199062e-06,
          4.97491237e-06, -1.52125949e-05, -6.54487842e-09,
          6.88240078e-08, -7.25111158e-06, -9.96224298e-06,
          -3.32303784e-06, -5.07394134e-06, -3.58110947e-06,
          -3.35488926e-06, 8.23737878e-07, -4.91870151e-06,
          -1.10420967e-06, -3.66715153e-06, -1.23068521e-05,
          2.56028693e-06, -3.16548994e-06, 4.73806085e-06,
          3.08426337e-07, 2.79459755e-06, 4.87471334e-06,
          -2.62959315e-06, 8.01926063e-08, 1.37110590e-06,
          6.03642184e-06, -1.52316295e-06, -1.34951313e-06,
          1.30264857e-06, 2.33104629e-06, -6.92947594e-07,
          -5.61919342e-06, 2.66672316e-07, -6.00079920e-06,
          -1.85867714e-06, -2.60112756e-06, -6.82636755e-06,
          -2.86425075e-06, -7.14634234e-06, 6.20685432e-06,
          7.12122301e-07, -1.50555047e-06, -2.93967923e-06,
          1.26385021e-06, -4.25264886e-07, -5.55345196e-06,
          -3.78611412e-06, -8.91452510e-06, 2.35950509e-07,
          -7.29924068e-06, -8.61886201e-06, -3.43484589e-06,
          -1.36269791e-05, -1.95276016e-06, -6.73300292e-06,
          -6.90316347e-06, -1.77424238e-06, -8.26890027e-06,
          8.04880472e-07, 9.69144821e-07, 4.53275288e-06, 4.58420936e-06,
          1.00264706e-05, 1.11193167e-05, 9.94092170e-06, 2.08208985e-05,
          -2.85023020e-06, 6.80641642e-06, -1.45633601e-06,
          5.31406340e-06, -5.72178351e-06, 3.06717448e-06,
          -3.66460040e-06, 2.81305711e-06, 3.01348609e-06,
          7.73651209e-06, 8.85417285e-06, -5.14732221e-07,
          1.85923955e-06, 6.44990359e-06, 6.32465981e-06, 1.32817122e-05,
          4.59338253e-06, 1.13702936e-05, 4.84210568e-06,
          -2.70567106e-08, -8.23012033e-06, 4.55730969e-06,
          -4.44656644e-06, -4.87538637e-06, 7.30743636e-07,
          -1.55450027e-06, -4.29113015e-06, -6.81060465e-06,
          -1.14619161e-05, -2.66437019e-06, -2.51760730e-06,
          -9.18946080e-06, -6.55287704e-06, -1.34490201e-05,
          -3.95305642e-06, 2.46552713e-06, -2.58006435e-06,
          -5.72687031e-06, 1.67831342e-06, -6.15408089e-06,
          -6.08070513e-06, -4.81472944e-06, -9.33349929e-06,
          -9.03704404e-06, -7.68695645e-06, 4.57075458e-07,
          2.78434345e-06, -4.94261076e-06, -1.84273574e-06,
          -1.32873663e-06, 9.44070598e-06, -1.46588291e-05,
          -2.33216770e-06, -8.61835179e-06, -9.97133043e-07,
          -1.06302432e-05, -1.15922649e-05, -1.26265900e-06,
          7.31774799e-06, 1.21883261e-06, -1.09185567e-06,
          3.88962417e-06, 7.86398050e-06, -1.55416035e-06,
          4.15946215e-06, 5.86226292e-07, -1.81577195e-06,
          6.46971557e-06, 2.20065601e-07, -4.51805226e-06,
          1.88173158e-06, 6.90982552e-06, 2.68292956e-06,
          -2.42581518e-06, -3.37093957e-06, 1.18089008e-06,
          1.24388157e-06, 7.41694862e-07, -2.29026205e-06,
          1.70690305e-06, 4.06411846e-06, 8.75554861e-07,
          -6.51002028e-06, 7.86777218e-06, 2.87476814e-06,
          2.05002470e-06, -7.55422889e-07, 7.64533161e-06,
          5.01728573e-06, 3.81560812e-06, 7.65206096e-06, 7.50881190e-06,
          6.20440869e-06, 4.91922776e-07, 9.71212194e-06, 2.55982513e-06,
          1.18369087e-06, 4.62154776e-06, 4.47067896e-06, 9.14942484e-06,
          2.53817393e-06, -4.19833577e-06, 6.57117289e-06,
          3.04264677e-06, -4.49705141e-07, 6.29630085e-06,
          -5.98124507e-06, -4.92957361e-06, 7.89061505e-06,
          7.14492717e-06, -2.94137038e-07, -1.09545881e-05,
          1.90927062e-06, 1.29904592e-07, -1.21673284e-05,
          1.19199171e-06, 4.17583169e-06, 5.04294485e-06, 1.03039406e-06,
          -6.05158093e-08, 3.13040027e-06, 8.07321248e-06,
          1.07377318e-05, 2.87666262e-06, 1.16361059e-06, 1.52882069e-06,
          1.35850078e-05, -8.20410605e-06, -2.28471731e-06 ]
   decision_functions:
      -
         sv_count: 1
         rho: 1.4313378188205665e+00
         alpha: [ 1. ]
         index: [ 0 ]
